{"learner":{"attributes":{"scikit_learn":"{\"_estimator_type\": \"classifier\"}"},"feature_names":["x0","y0","x1","y1","x2","y2","x3","y3","x4","y4","x5","y5","x6","y6","x7","y7","x8","y8","x9","y9","x10","y10","x11","y11","x12","y12","x13","y13","x14","y14","x15","y15","x16","y16"],"feature_types":["float","float","float","float","float","float","float","float","float","float","float","float","float","float","float","float","float","float","float","float","float","float","float","float","float","float","float","float","float","float","float","float","float","float"],"gradient_booster":{"model":{"gbtree_model_param":{"num_parallel_tree":"1","num_trees":"50"},"iteration_indptr":[0,1,2,3,4,5,6,7,8,9,10,11,12,13,14,15,16,17,18,19,20,21,22,23,24,25,26,27,28,29,30,31,32,33,34,35,36,37,38,39,40,41,42,43,44,45,46,47,48,49,50],"tree_info":[0,0,0,0,0,0,0,0,0,0,0,0,0,0,0,0,0,0,0,0,0,0,0,0,0,0,0,0,0,0,0,0,0,0,0,0,0,0,0,0,0,0,0,0,0,0,0,0,0,0],"trees":[{"base_weights":[-2.3994951E-1,4.2177865E-1,-5.929536E-1,-9.332177E-1,3.080346E0,3.712195E-1,-1.1320092E-1,4.145568E-1,-8.4610745E-2],"categories":[],"categories_nodes":[],"categories_segments":[],"categories_sizes":[],"default_left":[0,0,0,0,0,0,0,0,0],"id":0,"left_children":[1,-1,3,5,7,-1,-1,-1,-1],"loss_changes":[2.002553E2,0E0,1.4951868E2,1.0407184E2,4.608251E1,0E0,0E0,0E0,0E0],"parents":[2147483647,0,0,2,2,3,3,4,4],"right_children":[2,-1,4,6,8,-1,-1,-1,-1],"split_conditions":[5.583667E-1,4.2177865E-1,7.154522E-1,6.070012E-1,5.852615E-1,3.712195E-1,-1.1320092E-1,4.145568E-1,-8.4610745E-2],"split_indices":[11,0,32,10,9,0,0,0,0],"split_type":[0,0,0,0,0,0,0,0,0],"sum_hessian":[1.2467009E2,8.344718E0,1.1632537E2,1.0714618E2,9.17919E0,3.671676E0,1.034745E2,7.1764574E0,2.0027323E0],"tree_param":{"num_deleted":"0","num_feature":"34","num_nodes":"9","size_leaf_vector":"1"}},{"base_weights":[-2.2261225E-1,3.1375533E-1,-5.570981E-1,-8.9163303E-1,2.4013777E0,2.912308E-1,-1.09413795E-1,3.1079653E-1,-8.176251E-2],"categories":[],"categories_nodes":[],"categories_segments":[],"categories_sizes":[],"default_left":[0,0,0,0,0,0,0,0,0],"id":1,"left_children":[1,-1,3,5,7,-1,-1,-1,-1],"loss_changes":[1.4023724E2,0E0,1.1389259E2,8.1890816E1,2.9247322E1,0E0,0E0,0E0,0E0],"parents":[2147483647,0,0,2,2,3,3,4,4],"right_children":[2,-1,4,6,8,-1,-1,-1,-1],"split_conditions":[5.583667E-1,3.1375533E-1,7.154522E-1,6.070012E-1,5.852615E-1,2.912308E-1,-1.09413795E-1,3.1079653E-1,-8.176251E-2],"split_indices":[11,0,32,10,9,0,0,0,0],"split_type":[0,0,0,0,0,0,0,0,0],"sum_hessian":[1.2221905E2,1.0306108E1,1.1191294E2,1.0117142E2,1.0741521E1,4.437326E0,9.673409E1,8.836384E0,1.9051368E0],"tree_param":{"num_deleted":"0","num_feature":"34","num_nodes":"9","size_leaf_vector":"1"}},{"base_weights":[-2.0733248E-1,2.5617513E-1,-5.263313E-1,1.5337673E0,-9.4073695E-1,2.2599888E-1,-9.691296E-2,-1.1198353E-1,2.2563958E-1],"categories":[],"categories_nodes":[],"categories_segments":[],"categories_sizes":[],"default_left":[0,0,0,0,0,0,0,0,0],"id":2,"left_children":[1,-1,3,5,7,-1,-1,-1,-1],"loss_changes":[1.0684924E2,0E0,9.358175E1,3.573453E1,5.4331192E1,0E0,0E0,0E0,0E0],"parents":[2147483647,0,0,2,2,3,3,4,4],"right_children":[2,-1,4,6,8,-1,-1,-1,-1],"split_conditions":[5.583667E-1,2.5617513E-1,6.1519057E-1,5.852615E-1,7.168099E-1,2.2599888E-1,-9.691296E-2,-1.1198353E-1,2.2563958E-1],"split_indices":[11,0,18,9,28,0,0,0,0],"split_type":[0,0,0,0,0,0,0,0,0],"sum_hessian":[1.18434845E2,1.1508057E1,1.0692679E2,1.7454689E1,8.94721E1,1.3604393E1,3.8502963E0,8.534116E1,4.1309376E0],"tree_param":{"num_deleted":"0","num_feature":"34","num_nodes":"9","size_leaf_vector":"1"}},{"base_weights":[-1.9457504E-1,6.334486E-1,-1.170339E-1,2.2712414E-1,2.2986387E-1,2.2051762E-1,-4.2189065E-2],"categories":[],"categories_nodes":[],"categories_segments":[],"categories_sizes":[],"default_left":[0,0,0,0,0,0,0],"id":3,"left_children":[1,3,-1,5,-1,-1,-1],"loss_changes":[9.3690285E1,4.2023796E1,0E0,6.724654E1,0E0,0E0,0E0],"parents":[2147483647,0,0,1,1,3,3],"right_children":[2,4,-1,6,-1,-1,-1],"split_conditions":[5.943264E-1,6.9202954E-1,-1.170339E-1,7.2909343E-1,2.2986387E-1,2.2051762E-1,-4.2189065E-2],"split_indices":[13,32,0,31,0,0,0],"split_type":[0,0,0,0,0,0,0],"sum_hessian":[1.1404212E2,6.1881184E1,5.2160942E1,5.0656776E1,1.1224409E1,1.1922359E1,3.8734417E1],"tree_param":{"num_deleted":"0","num_feature":"34","num_nodes":"7","size_leaf_vector":"1"}},{"base_weights":[-1.8256041E-1,5.781188E-1,-1.14762776E-1,1.8313799E0,1.16669126E-1,-8.7521166E-2,2.3189059E-1,1.938758E-1,-5.3022023E-2],"categories":[],"categories_nodes":[],"categories_segments":[],"categories_sizes":[],"default_left":[0,0,0,0,0,0,0,0,0],"id":4,"left_children":[1,3,-1,5,7,-1,-1,-1,-1],"loss_changes":[8.188289E1,3.595149E1,0E0,2.4146145E1,5.616029E1,0E0,0E0,0E0,0E0],"parents":[2147483647,0,0,1,1,3,3,4,4],"right_children":[2,4,-1,6,8,-1,-1,-1,-1],"split_conditions":[5.943264E-1,6.1519057E-1,-1.14762776E-1,6.810269E-1,5.583667E-1,-8.7521166E-2,2.3189059E-1,1.938758E-1,-5.3022023E-2],"split_indices":[13,18,0,27,11,0,0,0,0],"split_type":[0,0,0,0,0,0,0,0,0],"sum_hessian":[1.096371E2,6.1535183E1,4.8101913E1,1.5760942E1,4.577424E1,2.2842557E0,1.3476687E1,1.1469927E1,3.4304314E1],"tree_param":{"num_deleted":"0","num_feature":"34","num_nodes":"9","size_leaf_vector":"1"}},{"base_weights":[-1.7284633E-1,5.308202E-1,-1.1274328E-1,1.7345354E-1,1.9070935E-1,1.3011548E-1,-6.6254616E-2],"categories":[],"categories_nodes":[],"categories_segments":[],"categories_sizes":[],"default_left":[0,0,0,0,0,0,0],"id":5,"left_children":[1,3,-1,5,-1,-1,-1],"loss_changes":[7.176913E1,3.000227E1,0E0,4.8056797E1,0E0,0E0,0E0],"parents":[2147483647,0,0,1,1,3,3],"right_children":[2,4,-1,6,-1,-1,-1],"split_conditions":[5.943264E-1,6.9202954E-1,-1.1274328E-1,7.31993E-1,1.9070935E-1,1.3011548E-1,-6.6254616E-2],"split_indices":[13,32,0,33,0,0,0],"split_type":[0,0,0,0,0,0,0],"sum_hessian":[1.0495435E2,6.067336E1,4.4281E1,4.9060272E1,1.1613084E1,2.0649385E1,2.8410887E1],"tree_param":{"num_deleted":"0","num_feature":"34","num_nodes":"7","size_leaf_vector":"1"}},{"base_weights":[-1.634722E-1,4.8663723E-1,-1.1093382E-1,8.9911956E-1,-5.7588637E-1,5.009357E-2,1.8923515E-1,1.4610094E-1,-9.674207E-2],"categories":[],"categories_nodes":[],"categories_segments":[],"categories_sizes":[],"default_left":[0,0,0,0,0,0,0,0,0],"id":6,"left_children":[1,3,-1,5,7,-1,-1,-1,-1],"loss_changes":[6.303297E1,2.7219969E1,0E0,1.6563755E1,1.5487473E1,0E0,0E0,0E0,0E0],"parents":[2147483647,0,0,1,1,3,3,4,4],"right_children":[2,4,-1,6,8,-1,-1,-1,-1],"split_conditions":[5.943264E-1,5.4224837E-1,-1.1093382E-1,5.286489E-1,5.967913E-1,5.009357E-2,1.8923515E-1,1.4610094E-1,-9.674207E-2],"split_indices":[13,1,0,0,0,0,0,0,0],"split_type":[0,0,0,0,0,0,0,0,0],"sum_hessian":[1.00628654E2,5.9926018E1,4.070264E1,4.3278614E1,1.6647404E1,3.1967346E1,1.131127E1,2.243653E0,1.440375E1],"tree_param":{"num_deleted":"0","num_feature":"34","num_nodes":"9","size_leaf_vector":"1"}},{"base_weights":[-1.5367284E-1,4.4683716E-1,-1.0929995E-1,1.5052028E0,3.556336E-2,-8.409118E-2,1.904869E-1,1.5310594E-1,-5.0512504E-2],"categories":[],"categories_nodes":[],"categories_segments":[],"categories_sizes":[],"default_left":[0,0,0,0,0,0,0,0,0],"id":7,"left_children":[1,3,-1,5,7,-1,-1,-1,-1],"loss_changes":[5.556139E1,2.6179947E1,0E0,1.739365E1,3.669663E1,0E0,0E0,0E0,0E0],"parents":[2147483647,0,0,1,1,3,3,4,4],"right_children":[2,4,-1,6,8,-1,-1,-1,-1],"split_conditions":[5.943264E-1,6.1519057E-1,-1.0929995E-1,6.810269E-1,5.583667E-1,-8.409118E-2,1.904869E-1,1.5310594E-1,-5.0512504E-2],"split_indices":[13,18,0,27,11,0,0,0,0],"split_type":[0,0,0,0,0,0,0,0,0],"sum_hessian":[9.663417E1,5.9268322E1,3.7365845E1,1.5841696E1,4.342663E1,2.1451616E0,1.3696534E1,1.1045121E1,3.2381504E1],"tree_param":{"num_deleted":"0","num_feature":"34","num_nodes":"9","size_leaf_vector":"1"}},{"base_weights":[-1.4604388E-1,4.1739023E-1,-1.0781296E-1,9.0475224E-2,1.6442053E-1,1.1446136E-1,-5.355085E-2],"categories":[],"categories_nodes":[],"categories_segments":[],"categories_sizes":[],"default_left":[0,0,0,0,0,0,0],"id":8,"left_children":[1,3,-1,5,-1,-1,-1],"loss_changes":[4.9219566E1,2.3353172E1,0E0,3.1843147E1,0E0,0E0,0E0],"parents":[2147483647,0,0,1,1,3,3],"right_children":[2,4,-1,6,-1,-1,-1],"split_conditions":[5.943264E-1,6.9202954E-1,-1.0781296E-1,7.309495E-1,1.6442053E-1,1.1446136E-1,-5.355085E-2],"split_indices":[13,32,0,33,0,0,0],"split_type":[0,0,0,0,0,0,0],"sum_hessian":[9.186454E1,5.759892E1,3.4265625E1,4.6327553E1,1.1271366E1,1.6952139E1,2.9375412E1],"tree_param":{"num_deleted":"0","num_feature":"34","num_nodes":"7","size_leaf_vector":"1"}},{"base_weights":[-1.3801949E-1,3.8786387E-1,-1.0644858E-1,1.3666344E0,4.106752E-3,-7.9704575E-2,1.7224284E-1,1.3786943E-1,-4.8313964E-2],"categories":[],"categories_nodes":[],"categories_segments":[],"categories_sizes":[],"default_left":[0,0,0,0,0,0,0,0,0],"id":9,"left_children":[1,3,-1,5,7,-1,-1,-1,-1],"loss_changes":[4.3641563E1,2.152898E1,0E0,1.3801413E1,2.8921799E1,0E0,0E0,0E0,0E0],"parents":[2147483647,0,0,1,1,3,3,4,4],"right_children":[2,4,-1,6,8,-1,-1,-1,-1],"split_conditions":[5.943264E-1,6.1519057E-1,-1.0644858E-1,6.810269E-1,5.583667E-1,-7.9704575E-2,1.7224284E-1,1.3786943E-1,-4.8313964E-2],"split_indices":[13,18,0,27,11,0,0,0,0],"split_type":[0,0,0,0,0,0,0,0,0],"sum_hessian":[8.772643E1,5.633229E1,3.139414E1,1.5144676E1,4.1187614E1,1.9635569E0,1.318112E1,1.0300096E1,3.0887518E1],"tree_param":{"num_deleted":"0","num_feature":"34","num_nodes":"9","size_leaf_vector":"1"}},{"base_weights":[-1.312502E-1,3.6495322E-1,-1.05186045E-1,6.1472934E-2,1.506413E-1,8.89158E-2,-5.9308477E-2],"categories":[],"categories_nodes":[],"categories_segments":[],"categories_sizes":[],"default_left":[0,0,0,0,0,0,0],"id":10,"left_children":[1,3,-1,5,-1,-1,-1],"loss_changes":[3.8840866E1,1.9113907E1,0E0,2.4821257E1,0E0,0E0,0E0],"parents":[2147483647,0,0,1,1,3,3],"right_children":[2,4,-1,6,-1,-1,-1],"split_conditions":[5.943264E-1,6.9202954E-1,-1.05186045E-1,7.31993E-1,1.506413E-1,8.89158E-2,-5.9308477E-2],"split_indices":[13,32,0,33,0,0,0],"split_type":[0,0,0,0,0,0,0],"sum_hessian":[8.318597E1,5.4444355E1,2.8741608E1,4.384194E1,1.0602416E1,1.9202307E1,2.4639635E1],"tree_param":{"num_deleted":"0","num_feature":"34","num_nodes":"7","size_leaf_vector":"1"}},{"base_weights":[-1.24358825E-1,3.4012312E-1,-1.0400748E-1,1.2667353E0,-1.9397538E-2,-7.54302E-2,1.5936987E-1,1.2740242E-1,-4.6288434E-2],"categories":[],"categories_nodes":[],"categories_segments":[],"categories_sizes":[],"default_left":[0,0,0,0,0,0,0,0,0],"id":11,"left_children":[1,3,-1,5,7,-1,-1,-1,-1],"loss_changes":[3.4542114E1,1.8041622E1,0E0,1.1202274E1,2.3505583E1,0E0,0E0,0E0,0E0],"parents":[2147483647,0,0,1,1,3,3,4,4],"right_children":[2,4,-1,6,8,-1,-1,-1,-1],"split_conditions":[5.943264E-1,6.1519057E-1,-1.0400748E-1,6.810269E-1,5.583667E-1,-7.54302E-2,1.5936987E-1,1.2740242E-1,-4.6288434E-2],"split_indices":[13,18,0,27,11,0,0,0,0],"split_type":[0,0,0,0,0,0,0,0,0],"sum_hessian":[7.938011E1,5.3083134E1,2.629698E1,1.4133276E1,3.894986E1,1.7860835E0,1.2347192E1,9.466942E0,2.9482918E1],"tree_param":{"num_deleted":"0","num_feature":"34","num_nodes":"9","size_leaf_vector":"1"}},{"base_weights":[-1.1818408E-1,3.2166776E-1,-1.028973E-1,3.634234E-2,1.4111729E-1,1.2488343E-1,-3.492936E-2],"categories":[],"categories_nodes":[],"categories_segments":[],"categories_sizes":[],"default_left":[0,0,0,0,0,0,0],"id":12,"left_children":[1,3,-1,5,-1,-1,-1],"loss_changes":[3.0851336E1,1.615584E1,0E0,2.023462E1,0E0,0E0,0E0],"parents":[2147483647,0,0,1,1,3,3],"right_children":[2,4,-1,6,-1,-1,-1],"split_conditions":[5.943264E-1,6.9202954E-1,-1.028973E-1,5.583667E-1,1.4111729E-1,1.2488343E-1,-3.492936E-2],"split_indices":[13,32,0,11,0,0,0],"split_type":[0,0,0,0,0,0,0],"sum_hessian":[7.518428E1,5.1135826E1,2.4048454E1,4.134225E1,9.793572E0,9.435953E0,3.19063E1],"tree_param":{"num_deleted":"0","num_feature":"34","num_nodes":"7","size_leaf_vector":"1"}},{"base_weights":[-1.1078241E-1,3.0465636E-1,-1.0184182E-1,1.1928114E0,-3.941711E-2,-7.212623E-2,1.5038733E-1,-1.0336876E-1,4.934318E-2],"categories":[],"categories_nodes":[],"categories_segments":[],"categories_sizes":[],"default_left":[0,0,0,0,0,0,0,0,0],"id":13,"left_children":[1,3,-1,5,7,-1,-1,-1,-1],"loss_changes":[2.763442E1,1.5473553E1,0E0,9.496283E0,2.0299688E1,0E0,0E0,0E0,0E0],"parents":[2147483647,0,0,1,1,3,3,4,4],"right_children":[2,4,-1,6,8,-1,-1,-1,-1],"split_conditions":[5.943264E-1,6.1519057E-1,-1.0184182E-1,6.810269E-1,6.387203E-1,-7.212623E-2,1.5038733E-1,-1.0336876E-1,4.934318E-2],"split_indices":[13,18,0,27,10,0,0,0,0],"split_type":[0,0,0,0,0,0,0,0,0],"sum_hessian":[7.146496E1,4.948106E1,2.1983896E1,1.3127747E1,3.6353313E1,1.6508394E0,1.1476907E1,1.2356588E1,2.3996727E1],"tree_param":{"num_deleted":"0","num_feature":"34","num_nodes":"9","size_leaf_vector":"1"}},{"base_weights":[-1.07345186E-1,2.8259778E-1,-1.0082892E-1,1.132947E0,-3.9265845E-2,-7.000263E-2,1.432325E-1,-1.01647966E-1,4.433875E-2],"categories":[],"categories_nodes":[],"categories_segments":[],"categories_sizes":[],"default_left":[0,0,0,0,0,0,0,0,0],"id":14,"left_children":[1,3,-1,5,7,-1,-1,-1,-1],"loss_changes":[2.4559679E1,1.34570675E1,0E0,8.404921E0,1.7673685E1,0E0,0E0,0E0,0E0],"parents":[2147483647,0,0,1,1,3,3,4,4],"right_children":[2,4,-1,6,8,-1,-1,-1,-1],"split_conditions":[5.943264E-1,6.1519057E-1,-1.0082892E-1,6.810269E-1,6.387203E-1,-7.000263E-2,1.432325E-1,-1.01647966E-1,4.433875E-2],"split_indices":[13,18,0,27,10,0,0,0,0],"split_type":[0,0,0,0,0,0,0,0,0],"sum_hessian":[6.809644E1,4.800531E1,2.0091133E1,1.2489267E1,3.551604E1,1.5655779E0,1.0923689E1,1.1376453E1,2.413959E1],"tree_param":{"num_deleted":"0","num_feature":"34","num_nodes":"9","size_leaf_vector":"1"}},{"base_weights":[-1.04053885E-1,2.6207548E-1,-9.9847786E-2,8.562505E-3,1.2828253E-1,4.7850423E-2,-8.798984E-2],"categories":[],"categories_nodes":[],"categories_segments":[],"categories_sizes":[],"default_left":[0,0,0,0,0,0,0],"id":15,"left_children":[1,3,-1,5,-1,-1,-1],"loss_changes":[2.1853016E1,1.230006E1,0E0,1.6753119E1,0E0,0E0,0E0],"parents":[2147483647,0,0,1,1,3,3],"right_children":[2,4,-1,6,-1,-1,-1],"split_conditions":[5.943264E-1,6.9202954E-1,-9.9847786E-2,6.651168E-1,1.2828253E-1,4.7850423E-2,-8.798984E-2],"split_indices":[13,32,0,10,0,0,0],"split_type":[0,0,0,0,0,0,0],"sum_hessian":[6.493281E1,4.6574635E1,1.8358175E1,3.811644E1,8.458195E0,2.5231785E1,1.2884655E1],"tree_param":{"num_deleted":"0","num_feature":"34","num_nodes":"7","size_leaf_vector":"1"}},{"base_weights":[-9.919743E-2,2.4315056E-1,-9.8888725E-2,1.0723E0,-5.443189E-2,-6.54344E-2,1.3513456E-1,1.1304559E-1,-4.32814E-2],"categories":[],"categories_nodes":[],"categories_segments":[],"categories_sizes":[],"default_left":[0,0,0,0,0,0,0,0,0],"id":16,"left_children":[1,3,-1,5,7,-1,-1,-1,-1],"loss_changes":[1.9506075E1,1.15266075E1,0E0,6.822068E0,1.6250704E1,0E0,0E0,0E0,0E0],"parents":[2147483647,0,0,1,1,3,3,4,4],"right_children":[2,4,-1,6,8,-1,-1,-1,-1],"split_conditions":[5.943264E-1,6.1519057E-1,-9.8888725E-2,6.810269E-1,5.583667E-1,-6.54344E-2,1.3513456E-1,1.1304559E-1,-4.32814E-2],"split_indices":[13,18,0,27,11,0,0,0,0],"split_type":[0,0,0,0,0,0,0,0,0],"sum_hessian":[6.2252357E1,4.5478985E1,1.6773375E1,1.1323928E1,3.4155056E1,1.3883475E0,9.93558E0,7.7859797E0,2.6369076E1],"tree_param":{"num_deleted":"0","num_feature":"34","num_nodes":"9","size_leaf_vector":"1"}},{"base_weights":[-9.38394E-2,2.3195085E-1,-9.7943E-2,-1.0833491E-2,1.23740986E-1,7.907657E-2,-4.95831E-2],"categories":[],"categories_nodes":[],"categories_segments":[],"categories_sizes":[],"default_left":[0,0,0,0,0,0,0],"id":17,"left_children":[1,3,-1,5,-1,-1,-1],"loss_changes":[1.75356E1,1.0916688E1,0E0,1.47647915E1,0E0,0E0,0E0],"parents":[2147483647,0,0,1,1,3,3],"right_children":[2,4,-1,6,-1,-1,-1],"split_conditions":[5.943264E-1,6.9202954E-1,-9.7943E-2,7.309495E-1,1.23740986E-1,7.907657E-2,-4.95831E-2],"split_indices":[13,32,0,33,0,0,0],"split_type":[0,0,0,0,0,0,0],"sum_hessian":[5.899104E1,4.36655E1,1.5325541E1,3.5969345E1,7.696155E0,1.33214035E1,2.2647942E1],"tree_param":{"num_deleted":"0","num_feature":"34","num_nodes":"7","size_leaf_vector":"1"}},{"base_weights":[-8.807272E-2,2.1850552E-1,-9.700272E-2,1.0403535E0,-6.99668E-2,-6.2171854E-2,1.3110217E-1,-9.9295564E-2,3.7771743E-2],"categories":[],"categories_nodes":[],"categories_segments":[],"categories_sizes":[],"default_left":[0,0,0,0,0,0,0,0,0],"id":18,"left_children":[1,3,-1,5,7,-1,-1,-1,-1],"loss_changes":[1.5746923E1,1.0374013E1,0E0,5.921937E0,1.40516E1,0E0,0E0,0E0,0E0],"parents":[2147483647,0,0,1,1,3,3,4,4],"right_children":[2,4,-1,6,8,-1,-1,-1,-1],"split_conditions":[5.943264E-1,6.1519057E-1,-9.700272E-2,6.810269E-1,6.387203E-1,-6.2171854E-2,1.3110217E-1,-9.9295564E-2,3.7771743E-2],"split_indices":[13,18,0,27,10,0,0,0,0],"split_type":[0,0,0,0,0,0,0,0,0],"sum_hessian":[5.6454338E1,4.2450333E1,1.4004008E1,1.0351845E1,3.2098488E1,1.268077E0,9.083768E0,1.0086078E1,2.201241E1],"tree_param":{"num_deleted":"0","num_feature":"34","num_nodes":"9","size_leaf_vector":"1"}},{"base_weights":[-8.5784875E-2,2.0279518E-1,-9.606073E-2,6.253835E-3,1.3423611E-1,1.0791915E-1,-2.9734546E-2],"categories":[],"categories_nodes":[],"categories_segments":[],"categories_sizes":[],"default_left":[0,0,0,0,0,0,0],"id":19,"left_children":[1,3,-1,5,-1,-1,-1],"loss_changes":[1.406131E1,9.4270115E0,0E0,1.2352328E1,0E0,0E0,0E0],"parents":[2147483647,0,0,1,1,3,3],"right_children":[2,4,-1,6,-1,-1,-1],"split_conditions":[5.943264E-1,6.1157936E-1,-9.606073E-2,5.583667E-1,1.3423611E-1,1.0791915E-1,-2.9734546E-2],"split_indices":[13,15,0,11,0,0,0],"split_type":[0,0,0,0,0,0,0],"sum_hessian":[5.392635E1,4.1127647E1,1.2798702E1,3.5935352E1,5.192295E0,7.3622117E0,2.8573143E1],"tree_param":{"num_deleted":"0","num_feature":"34","num_nodes":"7","size_leaf_vector":"1"}},{"base_weights":[-7.8566216E-2,1.9348487E-1,-9.511059E-2,-3.214021E-2,1.156251E-1,4.2204272E-2,-8.3986744E-2],"categories":[],"categories_nodes":[],"categories_segments":[],"categories_sizes":[],"default_left":[0,0,0,0,0,0,0],"id":20,"left_children":[1,3,-1,5,-1,-1,-1],"loss_changes":[1.2698842E1,8.948022E0,0E0,1.2903208E1,0E0,0E0,0E0],"parents":[2147483647,0,0,1,1,3,3],"right_children":[2,4,-1,6,-1,-1,-1],"split_conditions":[5.943264E-1,6.9202954E-1,-9.511059E-2,6.651168E-1,1.156251E-1,4.2204272E-2,-8.3986744E-2],"split_indices":[13,32,0,10,0,0,0],"split_type":[0,0,0,0,0,0,0],"sum_hessian":[5.1721634E1,4.0021492E1,1.1700139E1,3.3206207E1,6.815287E0,2.1560364E1,1.1645843E1],"tree_param":{"num_deleted":"0","num_feature":"34","num_nodes":"7","size_leaf_vector":"1"}},{"base_weights":[-7.504102E-2,8.4210306E-1,-3.2101336E-1,-5.727575E-2,1.0570692E0,1.02192484E-1,-5.8890444E-1,1.2316191E-1,-2.367194E-2,-8.3101146E-2,1.1165036E-1],"categories":[],"categories_nodes":[],"categories_segments":[],"categories_sizes":[],"default_left":[0,0,0,0,0,0,0,0,0,0,0],"id":21,"left_children":[1,3,5,-1,7,-1,9,-1,-1,-1,-1],"loss_changes":[1.1706377E1,3.9499993E0,1.5243017E1,0E0,2.5267162E0,0E0,1.5198685E1,0E0,0E0,0E0,0E0],"parents":[2147483647,0,0,1,1,2,2,4,4,6,6],"right_children":[2,4,6,-1,8,-1,10,-1,-1,-1,-1],"split_conditions":[6.1519057E-1,6.810269E-1,5.583667E-1,-5.727575E-2,5.728648E-1,1.02192484E-1,7.168099E-1,1.2316191E-1,-2.367194E-2,-8.3101146E-2,1.1165036E-1],"split_indices":[18,27,11,0,9,0,28,0,0,0,0],"split_type":[0,0,0,0,0,0,0,0,0,0,0],"sum_hessian":[4.9693497E1,9.996502E0,3.9697E1,1.0989625E0,8.897539E0,6.1337585E0,3.3563236E1,7.882178E0,1.0153617E0,2.9839775E1,3.723462E0],"tree_param":{"num_deleted":"0","num_feature":"34","num_nodes":"11","size_leaf_vector":"1"}},{"base_weights":[-6.8908714E-2,1.8419386E-1,-9.332674E-2,9.426529E-1,-7.730227E-2,-5.5705555E-2,1.1881816E-1,-5.456055E-2,8.1165306E-2],"categories":[],"categories_nodes":[],"categories_segments":[],"categories_sizes":[],"default_left":[0,0,0,0,0,0,0,0,0],"id":22,"left_children":[1,3,-1,5,7,-1,-1,-1,-1],"loss_changes":[1.05710945E1,7.5308695E0,0E0,4.239708E0,1.2468399E1,0E0,0E0,0E0,0E0],"parents":[2147483647,0,0,1,1,3,3,4,4],"right_children":[2,4,-1,6,8,-1,-1,-1,-1],"split_conditions":[5.943264E-1,6.1519057E-1,-9.332674E-2,6.810269E-1,6.2176764E-1,-5.5705555E-2,1.1881816E-1,-5.456055E-2,8.1165306E-2],"split_indices":[13,18,0,27,0,0,0,0,0],"split_type":[0,0,0,0,0,0,0,0,0],"sum_hessian":[4.6534515E1,3.6603218E1,9.931299E0,8.716504E0,2.7886713E1,1.0477804E0,7.6687236E0,1.8517763E1,9.36895E0],"tree_param":{"num_deleted":"0","num_feature":"34","num_nodes":"9","size_leaf_vector":"1"}},{"base_weights":[-6.532803E-2,1.7386992E-1,-9.232382E-2,4.5804116E-1,-5.297939E-1,1.2328601E-2,1.3906862E-1,7.124052E-2,-7.811438E-2],"categories":[],"categories_nodes":[],"categories_segments":[],"categories_sizes":[],"default_left":[0,0,0,0,0,0,0,0,0],"id":23,"left_children":[1,3,-1,5,7,-1,-1,-1,-1],"loss_changes":[9.507591E0,7.533134E0,0E0,8.104378E0,3.9759955E0,0E0,0E0,0E0,0E0],"parents":[2147483647,0,0,1,1,3,3,4,4],"right_children":[2,4,-1,6,8,-1,-1,-1,-1],"split_conditions":[5.943264E-1,5.4224837E-1,-9.232382E-2,5.286489E-1,5.967913E-1,1.2328601E-2,1.3906862E-1,7.124052E-2,-7.811438E-2],"split_indices":[13,1,0,0,0,0,0,0,0],"split_type":[0,0,0,0,0,0,0,0,0],"sum_hessian":[4.4548717E1,3.545944E1,9.089279E0,2.5507442E1,9.951995E0,1.9603374E1,5.904068E0,1.3661271E0,8.585868E0],"tree_param":{"num_deleted":"0","num_feature":"34","num_nodes":"9","size_leaf_vector":"1"}},{"base_weights":[-6.0521074E-2,-2.454041E-1,9.954397E-1,3.041309E-1,-8.431508E-1,1.0869149E-1,2.5230339E-2,1.1633271E-1,-7.4330844E-2,-9.402881E-2,-4.1791718E-3],"categories":[],"categories_nodes":[],"categories_segments":[],"categories_sizes":[],"default_left":[0,0,0,0,0,0,0,0,0,0,0],"id":24,"left_children":[1,3,5,7,9,-1,-1,-1,-1,-1,-1],"loss_changes":[8.794648E0,1.2762809E1,1.8281126E-1,1.937812E1,1.4009113E0,0E0,0E0,0E0,0E0,0E0,0E0],"parents":[2147483647,0,0,1,1,2,2,3,3,4,4],"right_children":[2,4,6,8,10,-1,-1,-1,-1,-1,-1],"split_conditions":[7.154522E-1,6.651168E-1,7.4361414E-1,7.374922E-1,5.381995E-1,1.0869149E-1,2.5230339E-2,1.1633271E-1,-7.4330844E-2,-9.402881E-2,-4.1791718E-3],"split_indices":[32,10,8,33,5,0,0,0,0,0,0],"split_type":[0,0,0,0,0,0,0,0,0,0,0],"sum_hessian":[4.279653E1,3.7073174E1,5.7233596E0,1.9571463E1,1.7501709E1,4.6841645E0,1.0391948E0,1.0691101E1,8.8803625E0,1.5454959E1,2.04675E0],"tree_param":{"num_deleted":"0","num_feature":"34","num_nodes":"11","size_leaf_vector":"1"}},{"base_weights":[-5.6467004E-2,7.742561E-1,-2.8711742E-1,-4.3350495E-2,9.807695E-1,9.2111535E-2,-5.10093E-1,1.14049256E-1,-8.394421E-3,-7.643781E-2,1.044684E-1],"categories":[],"categories_nodes":[],"categories_segments":[],"categories_sizes":[],"default_left":[0,0,0,0,0,0,0,0,0,0,0],"id":25,"left_children":[1,3,5,-1,7,-1,9,-1,-1,-1,-1],"loss_changes":[8.139998E0,2.7324119E0,9.379715E0,0E0,1.4912834E0,0E0,1.209122E1,0E0,0E0,0E0,0E0],"parents":[2147483647,0,0,1,1,2,2,4,4,6,6],"right_children":[2,4,6,-1,8,-1,10,-1,-1,-1,-1],"split_conditions":[6.1519057E-1,6.277714E-1,5.583667E-1,-4.3350495E-2,7.0898765E-1,9.2111535E-2,7.168099E-1,1.14049256E-1,-8.394421E-3,-7.643781E-2,1.044684E-1],"split_indices":[18,25,11,0,27,0,28,0,0,0,0],"split_type":[0,0,0,0,0,0,0,0,0,0,0],"sum_hessian":[4.0322666E1,8.250474E0,3.2072193E1,1.0442402E0,7.2062335E0,4.5089E0,2.7563293E1,6.2043195E0,1.0019137E0,2.4125856E1,3.4374366E0],"tree_param":{"num_deleted":"0","num_feature":"34","num_nodes":"11","size_leaf_vector":"1"}},{"base_weights":[-4.9657065E-2,1.7412989E-1,-8.967304E-2,-3.4946963E-2,1.03159E-1,6.8516254E-2,-4.623908E-2],"categories":[],"categories_nodes":[],"categories_segments":[],"categories_sizes":[],"default_left":[0,0,0,0,0,0,0],"id":26,"left_children":[1,3,-1,5,-1,-1,-1],"loss_changes":[7.5261555E0,5.6995845E0,0E0,8.432309E0,0E0,0E0,0E0],"parents":[2147483647,0,0,1,1,3,3],"right_children":[2,4,-1,6,-1,-1,-1],"split_conditions":[5.943264E-1,6.9202954E-1,-8.967304E-2,7.309495E-1,1.03159E-1,6.8516254E-2,-4.623908E-2],"split_indices":[13,32,0,33,0,0,0],"split_type":[0,0,0,0,0,0,0],"sum_hessian":[3.7878742E1,3.0591307E1,7.2874346E0,2.536559E1,5.2257175E0,9.223663E0,1.6141926E1],"tree_param":{"num_deleted":"0","num_feature":"34","num_nodes":"7","size_leaf_vector":"1"}},{"base_weights":[-4.5866225E-2,7.611635E-1,-2.7748424E-1,-2.2472106E-2,1.115796E-1,4.490723E-1,-6.443159E-1,-3.490972E-2,3.4162946E-2,1.3330291E-1,-5.7182193E-2,-9.9065796E-2,9.691658E-2],"categories":[],"categories_nodes":[],"categories_segments":[],"categories_sizes":[],"default_left":[0,0,0,0,0,0,0,0,0,0,0,0,0],"id":27,"left_children":[1,3,5,7,-1,9,11,-1,-1,-1,-1,-1,-1],"loss_changes":[7.2179594E0,2.42233E0,8.247353E0,5.554542E-1,0E0,1.0334122E1,1.2277094E1,0E0,0E0,0E0,0E0,0E0,0E0],"parents":[2147483647,0,0,1,1,2,2,3,3,5,5,6,6],"right_children":[2,4,6,8,-1,10,12,-1,-1,-1,-1,-1,-1],"split_conditions":[6.1519057E-1,4.466476E-1,7.309495E-1,6.936711E-1,1.115796E-1,6.627787E-1,7.168099E-1,-3.490972E-2,3.4162946E-2,1.3330291E-1,-5.7182193E-2,-9.9065796E-2,9.691658E-2],"split_indices":[18,14,33,26,0,10,28,0,0,0,0,0,0],"split_type":[0,0,0,0,0,0,0,0,0,0,0,0,0],"sum_hessian":[3.6484753E1,7.6262436E0,2.885851E1,2.667802E0,4.9584413E0,9.606812E0,1.9251698E1,1.4279965E0,1.2398057E0,4.9848537E0,4.621958E0,1.6167315E1,3.084384E0],"tree_param":{"num_deleted":"0","num_feature":"34","num_nodes":"13","size_leaf_vector":"1"}},{"base_weights":[-3.9670713E-2,7.2924393E-1,-2.6765138E-1,-2.0741062E-2,1.0802064E-1,4.3590385E-1,-6.315641E-1,-3.3640064E-2,3.340573E-2,1.3030337E-1,-5.4547597E-2,-9.807757E-2,9.362992E-2],"categories":[],"categories_nodes":[],"categories_segments":[],"categories_sizes":[],"default_left":[0,0,0,0,0,0,0,0,0,0,0,0,0],"id":28,"left_children":[1,3,5,7,-1,9,11,-1,-1,-1,-1,-1,-1],"loss_changes":[6.334876E0,2.2013736E0,7.3792205E0,5.178136E-1,0E0,9.263706E0,1.115439E1,0E0,0E0,0E0,0E0,0E0,0E0],"parents":[2147483647,0,0,1,1,2,2,3,3,5,5,6,6],"right_children":[2,4,6,8,-1,10,12,-1,-1,-1,-1,-1,-1],"split_conditions":[6.1519057E-1,4.466476E-1,7.309495E-1,7.130499E-1,1.0802064E-1,6.627787E-1,7.168099E-1,-3.3640064E-2,3.340573E-2,1.3030337E-1,-5.4547597E-2,-9.807757E-2,9.362992E-2],"split_indices":[18,14,33,24,0,10,28,0,0,0,0,0,0],"split_type":[0,0,0,0,0,0,0,0,0,0,0,0,0],"sum_hessian":[3.402438E1,7.278235E0,2.6746145E1,2.620115E0,4.6581197E0,9.050643E0,1.7695503E1,1.4139742E0,1.206141E0,4.6310086E0,4.4196343E0,1.4778357E1,2.9171462E0],"tree_param":{"num_deleted":"0","num_feature":"34","num_nodes":"13","size_leaf_vector":"1"}},{"base_weights":[-3.3445876E-2,1.7283322E-1,-8.636089E-2,5.3062737E-2,1.5564866E-1,8.247825E-2,-2.4210824E-2],"categories":[],"categories_nodes":[],"categories_segments":[],"categories_sizes":[],"default_left":[0,0,0,0,0,0,0],"id":29,"left_children":[1,3,-1,5,-1,-1,-1],"loss_changes":[5.7589765E0,4.403777E0,0E0,6.110921E0,0E0,0E0,0E0],"parents":[2147483647,0,0,1,1,3,3],"right_children":[2,4,-1,6,-1,-1,-1],"split_conditions":[5.943264E-1,6.2332135E-1,-8.636089E-2,6.1519057E-1,1.5564866E-1,8.247825E-2,-2.4210824E-2],"split_indices":[13,2,0,18,0,0,0],"split_type":[0,0,0,0,0,0,0],"sum_hessian":[3.1758371E1,2.6071842E1,5.686529E0,2.4950455E1,1.1213876E0,6.406503E0,1.8543951E1],"tree_param":{"num_deleted":"0","num_feature":"34","num_nodes":"7","size_leaf_vector":"1"}},{"base_weights":[-2.7364537E-2,1.6563207E-1,-8.513852E-2,-2.7877549E-2,9.5574625E-2,-3.8936798E-2,7.197303E-2],"categories":[],"categories_nodes":[],"categories_segments":[],"categories_sizes":[],"default_left":[0,0,0,0,0,0,0],"id":30,"left_children":[1,3,-1,5,-1,-1,-1],"loss_changes":[5.224889E0,4.1147637E0,0E0,6.347305E0,0E0,0E0,0E0],"parents":[2147483647,0,0,1,1,3,3],"right_children":[2,4,-1,6,-1,-1,-1],"split_conditions":[5.943264E-1,6.9202954E-1,-8.513852E-2,6.2176764E-1,9.5574625E-2,-3.8936798E-2,7.197303E-2],"split_indices":[13,32,0,0,0,0,0],"split_type":[0,0,0,0,0,0,0],"sum_hessian":[3.0967361E1,2.5738142E1,5.22922E0,2.144957E1,4.2885723E0,1.4781474E1,6.6680965E0],"tree_param":{"num_deleted":"0","num_feature":"34","num_nodes":"7","size_leaf_vector":"1"}},{"base_weights":[-2.4290662E-2,6.83186E-1,-2.4247272E-1,1.0426501E-1,-5.7417337E-2,4.0737957E-1,-6.061317E-1,-5.4848023E-2,4.0169477E-2,1.2069348E-1,-5.03622E-2,-9.640612E-2,8.8305265E-2],"categories":[],"categories_nodes":[],"categories_segments":[],"categories_sizes":[],"default_left":[0,0,0,0,0,0,0,0,0,0,0,0,0],"id":31,"left_children":[1,3,5,-1,7,9,11,-1,-1,-1,-1,-1,-1],"loss_changes":[4.949807E0,2.0744388E0,6.0194902E0,0E0,9.9149305E-1,7.4274616E0,9.413748E0,0E0,0E0,0E0,0E0,0E0,0E0],"parents":[2147483647,0,0,1,1,2,2,4,4,5,5,6,6],"right_children":[2,4,6,-1,8,10,12,-1,-1,-1,-1,-1,-1],"split_conditions":[6.1519057E-1,6.8648374E-1,7.309495E-1,1.0426501E-1,6.936711E-1,6.627787E-1,7.168099E-1,-5.4848023E-2,4.0169477E-2,1.2069348E-1,-5.03622E-2,-9.640612E-2,8.8305265E-2],"split_indices":[18,10,33,0,26,10,28,0,0,0,0,0,0],"split_type":[0,0,0,0,0,0,0,0,0,0,0,0,0],"sum_hessian":[2.9993738E1,6.567314E0,2.3426424E1,4.1467714E0,2.420543E0,8.36252E0,1.5063905E1,1.0755203E0,1.3450227E0,4.280674E0,4.0818467E0,1.2429149E1,2.6347551E0],"tree_param":{"num_deleted":"0","num_feature":"34","num_nodes":"13","size_leaf_vector":"1"}},{"base_weights":[-1.8812202E-2,1.6114564E-1,-8.264329E-2,-1.3966468E-2,9.912633E-2,-3.3618327E-2,6.529819E-2],"categories":[],"categories_nodes":[],"categories_segments":[],"categories_sizes":[],"default_left":[0,0,0,0,0,0,0],"id":32,"left_children":[1,3,-1,5,-1,-1,-1],"loss_changes":[4.350218E0,3.584712E0,0E0,4.7908964E0,0E0,0E0,0E0],"parents":[2147483647,0,0,1,1,3,3],"right_children":[2,4,-1,6,-1,-1,-1],"split_conditions":[5.943264E-1,6.1157936E-1,-8.264329E-2,6.2176764E-1,9.912633E-2,-3.3618327E-2,6.529819E-2],"split_indices":[13,15,0,0,0,0,0],"split_type":[0,0,0,0,0,0,0],"sum_hessian":[2.8015472E1,2.3565063E1,4.4504094E0,2.027191E1,3.2931545E0,1.4002799E1,6.2691097E0],"tree_param":{"num_deleted":"0","num_feature":"34","num_nodes":"7","size_leaf_vector":"1"}},{"base_weights":[-1.5932519E-2,6.607627E-1,-2.3372008E-1,9.955412E-2,-2.9196607E-2,3.7315962E-1,-5.888217E-1,-5.2651253E-2,4.142838E-2,1.1560678E-1,-4.8099812E-2,-9.5088266E-2,8.462783E-2],"categories":[],"categories_nodes":[],"categories_segments":[],"categories_sizes":[],"default_left":[0,0,0,0,0,0,0,0,0,0,0,0,0],"id":33,"left_children":[1,3,5,-1,7,9,11,-1,-1,-1,-1,-1,-1],"loss_changes":[4.32776E0,1.6819892E0,4.9956284E0,0E0,9.480037E-1,6.435993E0,8.270674E0,0E0,0E0,0E0,0E0,0E0,0E0],"parents":[2147483647,0,0,1,1,2,2,4,4,5,5,6,6],"right_children":[2,4,6,-1,8,10,12,-1,-1,-1,-1,-1,-1],"split_conditions":[6.1519057E-1,6.8648374E-1,7.309495E-1,9.955412E-2,7.130499E-1,6.627787E-1,7.168099E-1,-5.2651253E-2,4.142838E-2,1.1560678E-1,-4.8099812E-2,-9.5088266E-2,8.462783E-2],"split_indices":[18,10,33,0,24,10,28,0,0,0,0,0,0],"split_type":[0,0,0,0,0,0,0,0,0,0,0,0,0],"sum_hessian":[2.7317583E1,6.156021E0,2.1161564E1,3.8466642E0,2.3093567E0,7.792716E0,1.3368847E1,1.0003464E0,1.3090101E0,3.8815165E0,3.9111993E0,1.0944957E1,2.42389E0],"tree_param":{"num_deleted":"0","num_feature":"34","num_nodes":"13","size_leaf_vector":"1"}},{"base_weights":[-1.046255E-2,6.3654757E-1,-2.2373359E-1,9.658306E-2,-3.0564127E-2,-5.6792647E-1,3.988571E-1,-4.572124E-2,3.7556697E-2,6.685485E-2,-7.975531E-2,1.6259465E-1,-3.4059193E-2],"categories":[],"categories_nodes":[],"categories_segments":[],"categories_sizes":[],"default_left":[0,0,0,0,0,0,0,0,0,0,0,0,0],"id":34,"left_children":[1,3,5,-1,7,9,11,-1,-1,-1,-1,-1,-1],"loss_changes":[3.805874E0,1.5324464E0,4.6638947E0,0E0,7.314554E-1,4.4365296E0,7.7760754E0,0E0,0E0,0E0,0E0,0E0,0E0],"parents":[2147483647,0,0,1,1,2,2,4,4,5,5,6,6],"right_children":[2,4,6,-1,8,10,12,-1,-1,-1,-1,-1,-1],"split_conditions":[6.1519057E-1,6.8648374E-1,6.2869215E-1,9.658306E-2,7.171155E-1,5.564283E-1,6.458928E-1,-4.572124E-2,3.7556697E-2,6.685485E-2,-7.975531E-2,1.6259465E-1,-3.4059193E-2],"split_indices":[18,10,8,0,32,11,16,0,0,0,0,0,0],"split_type":[0,0,0,0,0,0,0,0,0,0,0,0,0],"sum_hessian":[2.5548996E1,5.841793E0,1.9707203E1,3.61143E0,2.2303634E0,1.2747616E1,6.959588E0,1.0263685E0,1.2039948E0,1.6972015E0,1.1050414E1,2.1661227E0,4.7934656E0],"tree_param":{"num_deleted":"0","num_feature":"34","num_nodes":"13","size_leaf_vector":"1"}},{"base_weights":[-2.1886262E-3,-1.7176709E-1,7.957309E-2,2.325977E-1,-8.263451E-1,-2.7179072E-2,1.3957255E-1,-2.0562802E-2,-9.06871E-2],"categories":[],"categories_nodes":[],"categories_segments":[],"categories_sizes":[],"default_left":[0,0,0,0,0,0,0,0,0],"id":35,"left_children":[1,3,-1,5,7,-1,-1,-1,-1],"loss_changes":[3.569479E0,5.9480214E0,0E0,8.723093E0,2.395525E-1,0E0,0E0,0E0,0E0],"parents":[2147483647,0,0,1,1,3,3,4,4],"right_children":[2,4,-1,6,8,-1,-1,-1,-1],"split_conditions":[7.154522E-1,6.712959E-1,7.957309E-2,6.3283944E-1,6.8155944E-1,-2.7179072E-2,1.3957255E-1,-2.0562802E-2,-9.06871E-2],"split_indices":[32,22,0,0,14,0,0,0,0],"split_type":[0,0,0,0,0,0,0,0,0],"sum_hessian":[2.4369888E1,2.0745638E1,3.6242514E0,1.3222261E1,7.523376E0,9.757336E0,3.464925E0,1.2719995E0,6.2513766E0],"tree_param":{"num_deleted":"0","num_feature":"34","num_nodes":"9","size_leaf_vector":"1"}},{"base_weights":[1.2010161E-3,6.1559063E-1,-2.1258807E-1,9.452612E-2,-5.691546E-2,-5.544698E-1,3.7769857E-1,-4.259784E-2,3.3911727E-2,6.2266946E-2,-7.678401E-2,1.4793625E-1,-3.0821333E-2],"categories":[],"categories_nodes":[],"categories_segments":[],"categories_sizes":[],"default_left":[0,0,0,0,0,0,0,0,0,0,0,0,0],"id":36,"left_children":[1,3,5,-1,7,9,11,-1,-1,-1,-1,-1,-1],"loss_changes":[3.3314264E0,1.5052612E0,4.0074306E0,0E0,5.970891E-1,3.573158E0,6.121171E0,0E0,0E0,0E0,0E0,0E0,0E0],"parents":[2147483647,0,0,1,1,2,2,4,4,5,5,6,6],"right_children":[2,4,6,-1,8,10,12,-1,-1,-1,-1,-1,-1],"split_conditions":[6.1519057E-1,6.8648374E-1,6.2869215E-1,9.452612E-2,7.0330554E-1,5.564283E-1,6.458928E-1,-4.259784E-2,3.3911727E-2,6.2266946E-2,-7.678401E-2,1.4793625E-1,-3.0821333E-2],"split_indices":[18,10,8,0,26,11,16,0,0,0,0,0,0],"split_type":[0,0,0,0,0,0,0,0,0,0,0,0,0],"sum_hessian":[2.3366684E1,5.5467987E0,1.7819885E1,3.4499915E0,2.0968072E0,1.1322694E1,6.4971924E0,1.0462202E0,1.050587E0,1.4430871E0,9.879606E0,2.0491724E0,4.44802E0],"tree_param":{"num_deleted":"0","num_feature":"34","num_nodes":"13","size_leaf_vector":"1"}},{"base_weights":[8.930705E-3,-1.6559695E-1,7.788958E-2,2.1831118E-1,-8.026019E-1,-2.5038907E-2,1.30899E-1,-2.0330515E-2,-8.845558E-2],"categories":[],"categories_nodes":[],"categories_segments":[],"categories_sizes":[],"default_left":[0,0,0,0,0,0,0,0,0],"id":37,"left_children":[1,3,-1,5,7,-1,-1,-1,-1],"loss_changes":[3.265056E0,5.029467E0,0E0,7.06102E0,1.9727612E-1,0E0,0E0,0E0,0E0],"parents":[2147483647,0,0,1,1,3,3,4,4],"right_children":[2,4,-1,6,8,-1,-1,-1,-1],"split_conditions":[7.154522E-1,6.712959E-1,7.788958E-2,6.3283944E-1,6.8155944E-1,-2.5038907E-2,1.30899E-1,-2.0330515E-2,-8.845558E-2],"split_indices":[32,22,0,0,14,0,0,0,0],"split_type":[0,0,0,0,0,0,0,0,0],"sum_hessian":[2.2337318E1,1.8849613E1,3.4877052E0,1.2171449E1,6.6781654E0,9.051956E0,3.1194928E0,1.2221069E0,5.4560585E0],"tree_param":{"num_deleted":"0","num_feature":"34","num_nodes":"9","size_leaf_vector":"1"}},{"base_weights":[1.1638877E-2,5.947766E-1,-2.0186856E-1,9.250648E-2,-8.015034E-3,-4.028343E-1,8.0368005E-2,3.0036265E-2,-9.127652E-2],"categories":[],"categories_nodes":[],"categories_segments":[],"categories_sizes":[],"default_left":[0,0,0,0,0,0,0,0,0],"id":38,"left_children":[1,3,5,-1,-1,7,-1,-1,-1],"loss_changes":[2.9168832E0,1.4727099E0,3.7974768E0,0E0,0E0,5.6502533E0,0E0,0E0,0E0],"parents":[2147483647,0,0,1,1,2,2,5,5],"right_children":[2,4,6,-1,-1,8,-1,-1,-1],"split_conditions":[6.1519057E-1,6.8648374E-1,7.168099E-1,9.250648E-2,-8.015034E-3,7.309495E-1,8.0368005E-2,3.0036265E-2,-9.127652E-2],"split_indices":[18,10,28,0,0,33,0,0,0],"split_type":[0,0,0,0,0,0,0,0,0],"sum_hessian":[2.1463625E1,5.273834E0,1.618979E1,3.292146E0,1.9816883E0,1.3992652E1,2.197138E0,6.0544767E0,7.9381757E0],"tree_param":{"num_deleted":"0","num_feature":"34","num_nodes":"9","size_leaf_vector":"1"}},{"base_weights":[1.4998199E-2,-1.4997725E-1,7.308626E-2,2.1980043E-1,-7.814845E-1,-2.3316361E-2,1.2614287E-1,-2.0648157E-2,-8.636414E-2],"categories":[],"categories_nodes":[],"categories_segments":[],"categories_sizes":[],"default_left":[0,0,0,0,0,0,0,0,0],"id":39,"left_children":[1,3,-1,5,7,-1,-1,-1,-1],"loss_changes":[2.649143E0,4.4464297E0,0E0,6.1096454E0,1.5140343E-1,0E0,0E0,0E0,0E0],"parents":[2147483647,0,0,1,1,3,3,4,4],"right_children":[2,4,-1,6,8,-1,-1,-1,-1],"split_conditions":[7.154522E-1,6.712959E-1,7.308626E-2,6.3283944E-1,6.8155944E-1,-2.3316361E-2,1.2614287E-1,-2.0648157E-2,-8.636414E-2],"split_indices":[32,22,0,0,14,0,0,0,0],"split_type":[0,0,0,0,0,0,0,0,0],"sum_hessian":[2.050321E1,1.7305536E1,3.1976748E0,1.1325726E1,5.9798107E0,8.43418E0,2.8915453E0,1.1868064E0,4.7930045E0],"tree_param":{"num_deleted":"0","num_feature":"34","num_nodes":"9","size_leaf_vector":"1"}},{"base_weights":[1.7278528E-2,5.708478E-1,-1.9785942E-1,9.0531155E-2,-9.791206E-3,-3.9027217E-1,7.590797E-2,2.5969466E-2,-8.9534484E-2],"categories":[],"categories_nodes":[],"categories_segments":[],"categories_sizes":[],"default_left":[0,0,0,0,0,0,0,0,0],"id":40,"left_children":[1,3,5,-1,-1,7,-1,-1,-1],"loss_changes":[2.583295E0,1.44472E0,3.1833966E0,0E0,0E0,4.7350817E0,0E0,0E0,0E0],"parents":[2147483647,0,0,1,1,2,2,5,5],"right_children":[2,4,6,-1,-1,8,-1,-1,-1],"split_conditions":[6.1519057E-1,6.8648374E-1,7.168099E-1,9.0531155E-2,-9.791206E-3,7.309495E-1,7.590797E-2,2.5969466E-2,-8.9534484E-2],"split_indices":[18,10,28,0,0,33,0,0,0],"split_type":[0,0,0,0,0,0,0,0,0],"sum_hessian":[1.9742878E1,5.062698E0,1.468018E1,3.1390584E0,1.9236392E0,1.2715606E1,1.9645743E0,5.772688E0,6.942918E0],"tree_param":{"num_deleted":"0","num_feature":"34","num_nodes":"9","size_leaf_vector":"1"}},{"base_weights":[2.0234684E-2,5.4619616E-1,-1.864685E-1,8.799551E-2,-9.154878E-3,-5.289469E-1,3.542205E-1,5.413617E-2,-7.27713E-2,1.269844E-1,-2.916086E-2],"categories":[],"categories_nodes":[],"categories_segments":[],"categories_sizes":[],"default_left":[0,0,0,0,0,0,0,0,0,0,0],"id":41,"left_children":[1,3,5,-1,-1,7,9,-1,-1,-1,-1],"loss_changes":[2.264504E0,1.3292916E0,2.9697397E0,0E0,0E0,2.4362833E0,4.1700206E0,0E0,0E0,0E0,0E0],"parents":[2147483647,0,0,1,1,2,2,5,5,6,6],"right_children":[2,4,6,-1,-1,8,10,-1,-1,-1,-1],"split_conditions":[6.1519057E-1,6.8648374E-1,6.2869215E-1,8.799551E-2,-9.154878E-3,5.564283E-1,6.458928E-1,5.413617E-2,-7.27713E-2,1.269844E-1,-2.916086E-2],"split_indices":[18,10,8,0,0,11,16,0,0,0,0],"split_type":[0,0,0,0,0,0,0,0,0,0,0],"sum_hessian":[1.8892357E1,4.866643E0,1.4025715E1,2.9453995E0,1.9212434E0,8.6000595E0,5.4256554E0,1.0770092E0,7.52305E0,1.8444566E0,3.5811987E0],"tree_param":{"num_deleted":"0","num_feature":"34","num_nodes":"11","size_leaf_vector":"1"}},{"base_weights":[2.7055603E-2,-1.4161456E-1,6.980877E-2,2.1670431E-1,-7.5661546E-1,6.350052E-2,-4.040171E-2,-2.2002272E-2,-8.331923E-2],"categories":[],"categories_nodes":[],"categories_segments":[],"categories_sizes":[],"default_left":[0,0,0,0,0,0,0,0,0],"id":42,"left_children":[1,3,-1,5,7,-1,-1,-1,-1],"loss_changes":[2.2663033E0,3.7194908E0,0E0,3.1054564E0,6.989813E-2,0E0,0E0,0E0,0E0],"parents":[2147483647,0,0,1,1,3,3,4,4],"right_children":[2,4,-1,6,8,-1,-1,-1,-1],"split_conditions":[7.154522E-1,6.705264E-1,6.980877E-2,6.2905264E-1,4.502292E-1,6.350052E-2,-4.040171E-2,-2.2002272E-2,-8.331923E-2],"split_indices":[32,26,0,21,18,0,0,0,0],"split_type":[0,0,0,0,0,0,0,0,0],"sum_hessian":[1.8149889E1,1.5134623E1,3.0152674E0,9.972162E0,5.16246E0,5.943713E0,4.0284495E0,1.128439E0,4.034021E0],"tree_param":{"num_deleted":"0","num_feature":"34","num_nodes":"9","size_leaf_vector":"1"}},{"base_weights":[2.408688E-2,-1.3740043E-1,6.6927955E-2,2.181348E-1,-7.489409E-1,-2.1092221E-2,1.1540097E-1,-2.0967504E-2,-8.2952134E-2],"categories":[],"categories_nodes":[],"categories_segments":[],"categories_sizes":[],"default_left":[0,0,0,0,0,0,0,0,0],"id":43,"left_children":[1,3,-1,5,7,-1,-1,-1,-1],"loss_changes":[2.0230632E0,3.566861E0,0E0,4.529168E0,8.594775E-2,0E0,0E0,0E0,0E0],"parents":[2147483647,0,0,1,1,3,3,4,4],"right_children":[2,4,-1,6,8,-1,-1,-1,-1],"split_conditions":[7.154522E-1,6.712959E-1,6.6927955E-2,6.3283944E-1,6.8155944E-1,-2.1092221E-2,1.1540097E-1,-2.0967504E-2,-8.2952134E-2],"split_indices":[32,22,0,0,14,0,0,0,0],"split_type":[0,0,0,0,0,0,0,0,0],"sum_hessian":[1.753437E1,1.4653691E1,2.8806794E0,9.673215E0,4.980477E0,7.1636333E0,2.5095816E0,1.1157359E0,3.864741E0],"tree_param":{"num_deleted":"0","num_feature":"34","num_nodes":"9","size_leaf_vector":"1"}},{"base_weights":[2.558083E-2,5.1380175E-1,-1.803396E-1,8.587616E-2,-1.2757598E-2,-3.7440458E-1,7.118807E-2,1.9894198E-2,-8.6186945E-2],"categories":[],"categories_nodes":[],"categories_segments":[],"categories_sizes":[],"default_left":[0,0,0,0,0,0,0,0,0],"id":44,"left_children":[1,3,5,-1,-1,7,-1,-1,-1],"loss_changes":[1.8954439E0,1.3439994E0,2.5785105E0,0E0,0E0,3.4197812E0,0E0,0E0,0E0],"parents":[2147483647,0,0,1,1,2,2,5,5],"right_children":[2,4,6,-1,-1,8,-1,-1,-1],"split_conditions":[6.1519057E-1,6.8648374E-1,7.168099E-1,8.587616E-2,-1.2757598E-2,7.309495E-1,7.118807E-2,1.9894198E-2,-8.6186945E-2],"split_indices":[18,10,28,0,0,33,0,0,0],"split_type":[0,0,0,0,0,0,0,0,0],"sum_hessian":[1.6931974E1,4.5794106E0,1.2352564E1,2.7574213E0,1.8219894E0,1.0622462E1,1.7301018E0,5.1532254E0,5.469237E0],"tree_param":{"num_deleted":"0","num_feature":"34","num_nodes":"9","size_leaf_vector":"1"}},{"base_weights":[2.7964314E-2,1.6334718E-1,-6.713732E-2,-4.2671865E-1,4.549121E-1,5.6329824E-2,-8.28014E-2,-7.558328E-3,7.739889E-2],"categories":[],"categories_nodes":[],"categories_segments":[],"categories_sizes":[],"default_left":[0,0,0,0,0,0,0,0,0],"id":45,"left_children":[1,3,-1,5,7,-1,-1,-1,-1],"loss_changes":[1.742548E0,2.8184054E0,0E0,2.675568E0,1.8685172E0,0E0,0E0,0E0,0E0],"parents":[2147483647,0,0,1,1,3,3,4,4],"right_children":[2,4,-1,6,8,-1,-1,-1,-1],"split_conditions":[5.943264E-1,6.2828237E-1,-6.713732E-2,6.253713E-1,6.677891E-1,5.6329824E-2,-8.28014E-2,-7.558328E-3,7.739889E-2],"split_indices":[13,23,0,23,30,0,0,0,0],"split_type":[0,0,0,0,0,0,0,0,0],"sum_hessian":[1.6246618E1,1.4253707E1,1.9929111E0,4.560557E0,9.6931505E0,1.1989598E0,3.361597E0,3.9270978E0,5.7660527E0],"tree_param":{"num_deleted":"0","num_feature":"34","num_nodes":"9","size_leaf_vector":"1"}},{"base_weights":[2.410792E-2,5.007919E-1,-1.7911364E-1,-1.2163768E-2,8.23809E-2,-3.6029416E-1,6.703509E-2,-8.0649376E-2,2.4218835E-2],"categories":[],"categories_nodes":[],"categories_segments":[],"categories_sizes":[],"default_left":[0,0,0,0,0,0,0,0,0],"id":46,"left_children":[1,3,5,-1,-1,7,-1,-1,-1],"loss_changes":[1.707531E0,1.1567935E0,2.1569555E0,0E0,0E0,3.1277008E0,0E0,0E0,0E0],"parents":[2147483647,0,0,1,1,2,2,5,5],"right_children":[2,4,6,-1,-1,8,-1,-1,-1],"split_conditions":[6.1519057E-1,4.466476E-1,7.168099E-1,-1.2163768E-2,8.23809E-2,6.3283944E-1,6.703509E-2,-8.0649376E-2,2.4218835E-2],"split_indices":[18,14,28,0,0,0,0,0,0],"split_type":[0,0,0,0,0,0,0,0,0],"sum_hessian":[1.5700641E1,4.2552066E0,1.1445435E1,1.666814E0,2.5883925E0,9.90803E0,1.5374054E0,5.4977603E0,4.410269E0],"tree_param":{"num_deleted":"0","num_feature":"34","num_nodes":"9","size_leaf_vector":"1"}},{"base_weights":[2.7141623E-2,1.583933E-1,-6.493442E-2,-4.024282E-1,4.2930302E-1,5.477504E-2,-8.034273E-2,1.0947863E-1,1.7290458E-2],"categories":[],"categories_nodes":[],"categories_segments":[],"categories_sizes":[],"default_left":[0,0,0,0,0,0,0,0,0],"id":47,"left_children":[1,3,-1,5,7,-1,-1,-1,-1],"loss_changes":[1.5323768E0,2.3435438E0,0E0,2.4099398E0,1.5371087E0,0E0,0E0,0E0,0E0],"parents":[2147483647,0,0,1,1,3,3,4,4],"right_children":[2,4,-1,6,8,-1,-1,-1,-1],"split_conditions":[5.943264E-1,6.2828237E-1,-6.493442E-2,6.253713E-1,7.309495E-1,5.477504E-2,-8.034273E-2,1.0947863E-1,1.7290458E-2],"split_indices":[13,23,0,23,33,0,0,0,0],"split_type":[0,0,0,0,0,0,0,0,0],"sum_hessian":[1.5100086E1,1.328784E1,1.8122461E0,4.1699605E0,9.117879E0,1.1289403E0,3.0410204E0,1.6264802E0,7.491399E0],"tree_param":{"num_deleted":"0","num_feature":"34","num_nodes":"9","size_leaf_vector":"1"}},{"base_weights":[2.695854E-2,4.9168238E-1,-1.7248519E-1,7.999033E-2,-9.817905E-3,-3.501301E-1,6.470121E-2,2.0689486E-2,-8.378031E-2],"categories":[],"categories_nodes":[],"categories_segments":[],"categories_sizes":[],"default_left":[0,0,0,0,0,0,0,0,0],"id":48,"left_children":[1,3,5,-1,-1,7,-1,-1,-1],"loss_changes":[1.536381E0,9.807731E-1,1.9296062E0,0E0,0E0,2.9613116E0,0E0,0E0,0E0],"parents":[2147483647,0,0,1,1,2,2,5,5],"right_children":[2,4,6,-1,-1,8,-1,-1,-1],"split_conditions":[6.1519057E-1,6.8648374E-1,7.168099E-1,7.999033E-2,-9.817905E-3,6.812532E-1,6.470121E-2,2.0689486E-2,-8.378031E-2],"split_indices":[18,10,28,0,0,29,0,0,0],"split_type":[0,0,0,0,0,0,0,0,0],"sum_hessian":[1.4661146E1,3.962607E0,1.069854E1,2.3687665E0,1.5938406E0,9.263264E0,1.4352759E0,4.592927E0,4.6703367E0],"tree_param":{"num_deleted":"0","num_feature":"34","num_nodes":"9","size_leaf_vector":"1"}},{"base_weights":[2.944365E-2,4.7155762E-1,-1.6210903E-1,-9.608461E-3,7.756374E-2,-4.1415045E-1,4.0774018E-1,2.3674963E-2,-8.374513E-2,6.598607E-2,-1.5695857E-2],"categories":[],"categories_nodes":[],"categories_segments":[],"categories_sizes":[],"default_left":[0,0,0,0,0,0,0,0,0,0,0],"id":49,"left_children":[1,3,5,-1,-1,7,9,-1,-1,-1,-1],"loss_changes":[1.3545263E0,9.061402E-1,1.788061E0,0E0,0E0,2.4886127E0,6.6752183E-1,0E0,0E0,0E0,0E0],"parents":[2147483647,0,0,1,1,2,2,5,5,6,6],"right_children":[2,4,6,-1,-1,8,10,-1,-1,-1,-1],"split_conditions":[6.1519057E-1,4.466476E-1,6.5488786E-1,-9.608461E-3,7.756374E-2,5.901005E-1,7.225096E-1,2.3674963E-2,-8.374513E-2,6.598607E-2,-1.5695857E-2],"split_indices":[18,14,32,0,0,15,30,0,0,0,0],"split_type":[0,0,0,0,0,0,0,0,0,0,0],"sum_hessian":[1.40916395E1,3.8179166E0,1.0273723E1,1.5703933E0,2.2475233E0,7.3126173E0,2.9611056E0,3.0552833E0,4.257334E0,1.9306239E0,1.0304817E0],"tree_param":{"num_deleted":"0","num_feature":"34","num_nodes":"11","size_leaf_vector":"1"}}]},"name":"gbtree"},"learner_model_param":{"base_score":"2.1171951E-1","boost_from_average":"1","num_class":"0","num_feature":"34","num_target":"1"},"objective":{"name":"binary:logistic","reg_loss_param":{"scale_pos_weight":"1"}}},"version":[2,1,3]}